#pragma once

// SignatureNet weights - 40 -> 16 (ReLU) -> 8.
// AUTO GENERATED by training/export_weights.py - DO NOT EDIT BY HAND.

static const float SIG_W1[640] = {
    -0.001184f, 0.084819f, -0.130135f, -0.116362f, -0.060898f, 0.042399f, -0.003133f, 0.125367f, -0.014032f, 0.041839f,
    -0.047784f, -0.031080f, -0.151054f, -0.104716f, -0.065178f, 0.005857f, 0.062508f, 0.094872f, -0.107192f, -0.068853f,
    0.057430f, 0.131296f, -0.032540f, 0.118318f, -0.025485f, 0.016731f, 0.143168f, -0.146678f, -0.099539f, -0.040029f,
    -0.061633f, 0.136611f, -0.102486f, -0.072785f, -0.110465f, -0.148083f, -0.092297f, 0.135914f, 0.070553f, 0.076633f,
    0.051245f, -0.070746f, 0.065421f, -0.130361f, -0.071512f, -0.061006f, 0.129926f, 0.105695f, -0.035040f, 0.036268f,
    0.144703f, 0.169442f, 0.102431f, -0.056488f, 0.019489f, 0.020181f, 0.016704f, -0.127154f, -0.036505f, 0.052278f,
    0.140892f, 0.040822f, -0.192126f, 0.159426f, -0.002383f, 0.097883f, 0.013679f, 0.032739f, 0.158616f, 0.128244f,
    -0.030902f, 0.000575f, 0.133639f, 0.089615f, 0.067955f, 0.163940f, 0.068907f, -0.144250f, 0.022047f, -0.063249f,
    -0.108528f, 0.155161f, 0.150740f, -0.209229f, -0.020728f, 0.014562f, -0.018634f, -0.101537f, 0.053038f, -0.140475f,
    0.102310f, 0.087155f, 0.077049f, 0.068533f, -0.216339f, -0.129433f, 0.066728f, -0.018152f, -0.077141f, -0.018400f,
    0.160062f, 0.036027f, -0.132263f, 0.016262f, -0.216550f, -0.001553f, -0.124784f, -0.088160f, 0.021039f, 0.024314f,
    0.004878f, 0.043446f, -0.125175f, 0.065631f, 0.039812f, -0.108378f, -0.084631f, -0.049606f, 0.059303f, -0.006950f,
    0.062048f, 0.009471f, -0.077148f, 0.074818f, -0.151671f, -0.093715f, -0.039581f, -0.077019f, -0.055314f, -0.129594f,
    -0.033633f, 0.033798f, -0.103006f, -0.008114f, 0.113186f, -0.016254f, 0.004394f, -0.013640f, 0.031999f, 0.100535f,
    0.149773f, 0.100411f, 0.150115f, -0.011435f, -0.142037f, -0.074958f, 0.107661f, -0.001025f, -0.078590f, -0.121165f,
    -0.147971f, -0.133449f, -0.032071f, 0.086711f, 0.085483f, -0.152490f, 0.098629f, -0.123726f, -0.033427f, -0.064111f,
    -0.030455f, -0.031045f, -0.141883f, -0.136522f, -0.024742f, 0.002045f, -0.071827f, 0.059561f, -0.142312f, -0.010671f,
    0.139048f, -0.064493f, 0.142777f, 0.057262f, -0.142692f, 0.100038f, -0.018245f, -0.070583f, 0.126436f, -0.127771f,
    0.016966f, -0.033104f, 0.112911f, 0.044137f, 0.075975f, 0.055839f, -0.038022f, -0.033252f, -0.130299f, 0.085673f,
    0.125539f, 0.108185f, -0.111530f, 0.007052f, -0.111460f, -0.087039f, -0.092134f, 0.054035f, -0.094222f, -0.003450f,
    0.055241f, 0.128431f, -0.072038f, -0.121409f, -0.098781f, 0.144798f, -0.010247f, 0.121661f, 0.044817f, -0.025689f,
    0.041509f, -0.015231f, 0.041498f, -0.065334f, -0.074071f, 0.022994f, -0.103147f, -0.129333f, 0.187623f, -0.017055f,
    0.076355f, 0.082698f, -0.048149f, 0.097857f, -0.210945f, 0.109799f, -0.124116f, -0.008644f, 0.017947f, 0.009025f,
    0.100925f, 0.117000f, -0.003968f, 0.027222f, 0.010106f, -0.062519f, 0.057756f, -0.166380f, -0.042996f, 0.070812f,
    0.037818f, 0.104401f, -0.065219f, -0.014250f, 0.066971f, -0.167172f, 0.100052f, -0.145269f, -0.012294f, -0.041322f,
    -0.083274f, 0.006565f, 0.116350f, -0.060836f, -0.108245f, -0.072719f, -0.171121f, 0.056724f, -0.090190f, -0.120404f,
    -0.105537f, 0.076518f, 0.069360f, 0.121356f, 0.043131f, -0.052804f, -0.044185f, 0.031860f, 0.115825f, 0.028669f,
    -0.089524f, -0.088776f, -0.164328f, 0.019506f, -0.101725f, -0.155808f, 0.124256f, -0.117113f, -0.032146f, 0.030859f,
    -0.043041f, -0.107023f, -0.157921f, 0.149618f, 0.060259f, 0.105755f, -0.073980f, 0.077736f, 0.004009f, 0.041252f,
    -0.142031f, 0.064179f, 0.075432f, 0.059081f, 0.046936f, -0.095850f, 0.111467f, -0.071203f, -0.010684f, -0.207314f,
    -0.148104f, 0.118931f, 0.044947f, -0.090773f, 0.126589f, -0.094483f, 0.076079f, 0.066268f, 0.030610f, 0.008292f,
    -0.244624f, 0.037009f, 0.029041f, 0.043062f, 0.099465f, 0.102398f, -0.062052f, 0.057840f, 0.039522f, 0.026654f,
    0.056975f, 0.046507f, -0.100135f, -0.018545f, 0.091389f, 0.183001f, 0.103390f, 0.018261f, 0.085231f, -0.086659f,
    -0.083878f, -0.119111f, 0.128057f, 0.130608f, -0.146557f, 0.029793f, 0.096667f, 0.119026f, 0.187758f, 0.181157f,
    -0.028991f, -0.079175f, 0.084498f, 0.151795f, -0.127547f, 0.129641f, 0.115419f, 0.095039f, -0.057429f, 0.032024f,
    -0.032302f, 0.088272f, -0.068302f, 0.031601f, 0.016770f, 0.091457f, -0.080952f, 0.047274f, -0.063748f, 0.017434f,
    -0.141822f, -0.189537f, -0.125743f, 0.128314f, 0.090185f, 0.118065f, 0.096363f, -0.113877f, -0.083023f, 0.023129f,
    -0.144983f, 0.105836f, -0.145834f, -0.117270f, -0.120097f, -0.058828f, 0.095768f, 0.170847f, 0.105728f, 0.147035f,
    0.145411f, -0.047211f, 0.074335f, 0.118297f, 0.039750f, 0.106982f, 0.041854f, 0.066049f, -0.113284f, 0.005319f,
    0.025383f, -0.068768f, -0.009244f, 0.002831f, -0.025584f, 0.075031f, 0.126557f, 0.006171f, -0.108479f, 0.112636f,
    0.146091f, 0.003446f, -0.062331f, 0.121293f, 0.061645f, -0.069154f, 0.135846f, 0.180508f, -0.049803f, 0.126246f,
    -0.050574f, 0.007883f, 0.109487f, 0.078437f, -0.083036f, -0.076488f, -0.002124f, -0.014474f, 0.040270f, 0.151478f,
    0.055658f, -0.125193f, 0.037564f, 0.165236f, 0.068573f, -0.237754f, -0.001993f, -0.085612f, -0.119429f, 0.087739f,
    -0.037509f, 0.007814f, 0.131251f, 0.043641f, -0.025106f, -0.005562f, 0.065267f, -0.070289f, 0.149573f, -0.079003f,
    -0.151994f, -0.153633f, -0.032076f, 0.106321f, -0.149651f, 0.131422f, -0.063249f, 0.046309f, 0.007210f, -0.142574f,
    0.131128f, 0.085135f, 0.157164f, 0.079881f, -0.104366f, 0.131959f, 0.008498f, 0.074980f, -0.126780f, -0.045478f,
    -0.155248f, -0.061584f, 0.034110f, -0.124145f, 0.050401f, 0.084877f, 0.022027f, -0.105791f, -0.122589f, -0.048781f,
    0.069405f, 0.155963f, 0.090920f, -0.017805f, 0.055437f, -0.155120f, -0.135045f, 0.073777f, -0.089558f, 0.076068f,
    -0.153493f, -0.079037f, -0.125546f, 0.129462f, 0.051466f, 0.094320f, 0.079297f, 0.138322f, 0.076684f, 0.014334f,
    -0.083002f, 0.055388f, 0.133405f, -0.089885f, 0.192771f, 0.023037f, -0.114968f, -0.041561f, 0.066473f, -0.009603f,
    -0.165953f, 0.200376f, 0.189200f, -0.035462f, 0.217917f, 0.013319f, 0.133924f, 0.095352f, -0.012454f, 0.065737f,
    -0.170115f, 0.191580f, -0.060879f, 0.002882f, 0.028146f, 0.114502f, -0.033383f, 0.068826f, 0.036971f, 0.027687f,
    0.048119f, -0.038135f, 0.055419f, -0.114537f, -0.092976f, -0.080257f, 0.145308f, -0.042546f, -0.000432f, -0.076605f,
    0.157844f, 0.154425f, -0.119247f, -0.128178f, -0.119849f, -0.000763f, -0.040304f, -0.103493f, -0.056711f, 0.029873f,
    -0.082613f, 0.035035f, -0.036258f, -0.076616f, 0.021723f, 0.130010f, -0.106898f, 0.007342f, -0.058307f, 0.155158f,
    -0.150013f, -0.151578f, 0.155803f, -0.100037f, 0.030314f, -0.013646f, -0.033308f, -0.035314f, 0.100472f, 0.007557f,
    -0.147208f, -0.090440f, -0.055013f, 0.080241f, -0.101985f, 0.147020f, -0.035772f, -0.031248f, 0.128068f, 0.076693f,
    0.157067f, 0.094492f, -0.044184f, -0.100516f, -0.014551f, 0.105116f, -0.064704f, -0.164219f, 0.070089f, 0.167278f,
    -0.043401f, -0.133834f, -0.151266f, 0.048863f, -0.022441f, -0.057388f, 0.071447f, 0.045031f, 0.144139f, 0.121659f,
    -0.010850f, -0.142755f, -0.150023f, 0.141602f, 0.056274f, 0.067066f, -0.140107f, 0.142486f, 0.151447f, 0.142832f,
    -0.133382f, -0.059660f, -0.108745f, 0.149728f, -0.067938f, -0.072188f, 0.082838f, -0.073142f, -0.077875f, -0.013830f,
    -0.015198f, -0.123167f, 0.131814f, -0.069747f, 0.056085f, 0.137525f, 0.079739f, 0.022386f, 0.134532f, 0.021255f,
    -0.073152f, 0.149576f, 0.037422f, -0.154269f, -0.045014f, -0.107702f, 0.138627f, -0.026112f, -0.144125f, -0.009940f,
    0.099298f, 0.041078f, 0.049996f, 0.014685f, 0.058948f, -0.038525f, -0.062898f, -0.147790f, -0.119113f, 0.068527f
};
static const float SIG_W1_BIAS[16] = {
    -0.093621f, 0.063061f, 0.007438f, 0.011195f, -0.102513f, 0.198205f, -0.106333f, 0.128910f, -0.136189f, -0.039094f,
    0.131423f, -0.064602f, 0.174032f, -0.108807f, -0.133170f, -0.071297f
};
static const float SIG_W2[128] = {
    0.040413f, 0.260626f, -0.084759f, 0.089407f, -0.062677f, 0.015576f, 0.162271f, -0.272702f, 0.019348f, 0.294337f,
    0.011249f, 0.194110f, -0.080398f, 0.201241f, -0.255127f, -0.036031f, -0.043912f, 0.109837f, 0.136466f, 0.191954f,
    -0.037246f, 0.027071f, 0.170981f, -0.009794f, 0.263931f, -0.149573f, -0.028652f, -0.013428f, 0.132297f, 0.170919f,
    0.008269f, -0.207120f, 0.123873f, 0.124703f, 0.149627f, -0.154217f, 0.160899f, 0.267258f, 0.030975f, -0.321518f,
    0.226444f, -0.120680f, 0.056278f, 0.036329f, -0.195440f, 0.087049f, -0.172983f, 0.056940f, -0.158488f, 0.033536f,
    0.067932f, 0.212986f, -0.119280f, 0.215838f, -0.026180f, -0.042644f, -0.175969f, -0.161959f, 0.298373f, -0.062350f,
    0.059571f, 0.067778f, 0.215638f, 0.213369f, 0.202754f, -0.122066f, 0.018013f, -0.147934f, -0.142838f, 0.091059f,
    0.247775f, -0.232348f, 0.194449f, -0.057985f, -0.015924f, 0.198443f, -0.063894f, 0.022764f, -0.119465f, 0.212810f,
    -0.032317f, -0.187404f, 0.031856f, -0.177754f, -0.198377f, -0.007752f, 0.180096f, -0.104013f, 0.072276f, 0.196163f,
    0.152166f, -0.131140f, -0.065066f, -0.078671f, -0.239409f, 0.000103f, 0.188109f, 0.236455f, 0.082579f, 0.056781f,
    -0.108230f, 0.172406f, -0.122541f, -0.257073f, 0.052611f, 0.182624f, -0.237350f, 0.225992f, 0.030360f, -0.175153f,
    -0.007064f, 0.216895f, -0.191809f, -0.044438f, 0.120967f, -0.219021f, 0.137050f, 0.089654f, 0.157802f, -0.255757f,
    0.286618f, -0.126313f, 0.204935f, -0.239923f, -0.308746f, 0.153549f, 0.069014f, 0.014422f
};
static const float SIG_W2_BIAS[8] = {
    -0.086707f, -0.057072f, -0.038454f, -0.184777f, 0.060736f, 0.000459f, -0.042015f, 0.033851f
};

static const int SIG_WEIGHTS_TRAINED = 1;
